digraph Tree {
node [shape=box] ;
0 [label="Sex <= 0.5\ngini = 0.473\nsamples = 891\nvalue = [549, 342]"] ;
1 [label="Pclass <= 2.5\ngini = 0.383\nsamples = 314\nvalue = [81, 233]"] ;
0 -> 1 [labeldistance=2.5, labelangle=45, headlabel="True"] ;
2 [label="Age <= 2.5\ngini = 0.1\nsamples = 170\nvalue = [9, 161]"] ;
1 -> 2 ;
3 [label="Parch <= 1.5\ngini = 0.5\nsamples = 2\nvalue = [1, 1]"] ;
2 -> 3 ;
4 [label="gini = 0.0\nsamples = 1\nvalue = [0, 1]"] ;
3 -> 4 ;
5 [label="gini = 0.0\nsamples = 1\nvalue = [1, 0]"] ;
3 -> 5 ;
6 [label="Fare <= 28.856\ngini = 0.091\nsamples = 168\nvalue = [8, 160]"] ;
2 -> 6 ;
7 [label="Fare <= 28.231\ngini = 0.182\nsamples = 69\nvalue = [7, 62]"] ;
6 -> 7 ;
8 [label="gini = 0.161\nsamples = 68\nvalue = [6, 62]"] ;
7 -> 8 ;
9 [label="gini = 0.0\nsamples = 1\nvalue = [1, 0]"] ;
7 -> 9 ;
10 [label="Parch <= 1.5\ngini = 0.02\nsamples = 99\nvalue = [1, 98]"] ;
6 -> 10 ;
11 [label="gini = 0.0\nsamples = 84\nvalue = [0, 84]"] ;
10 -> 11 ;
12 [label="gini = 0.124\nsamples = 15\nvalue = [1, 14]"] ;
10 -> 12 ;
13 [label="Fare <= 23.35\ngini = 0.5\nsamples = 144\nvalue = [72, 72]"] ;
1 -> 13 ;
14 [label="Age <= 36.5\ngini = 0.484\nsamples = 117\nvalue = [48, 69]"] ;
13 -> 14 ;
15 [label="Embarked <= 0.5\ngini = 0.472\nsamples = 110\nvalue = [42, 68]"] ;
14 -> 15 ;
16 [label="gini = 0.499\nsamples = 57\nvalue = [27, 30]"] ;
15 -> 16 ;
17 [label="gini = 0.406\nsamples = 53\nvalue = [15, 38]"] ;
15 -> 17 ;
18 [label="Age <= 55.0\ngini = 0.245\nsamples = 7\nvalue = [6, 1]"] ;
14 -> 18 ;
19 [label="gini = 0.0\nsamples = 6\nvalue = [6, 0]"] ;
18 -> 19 ;
20 [label="gini = 0.0\nsamples = 1\nvalue = [0, 1]"] ;
18 -> 20 ;
21 [label="Parch <= 0.5\ngini = 0.198\nsamples = 27\nvalue = [24, 3]"] ;
13 -> 21 ;
22 [label="gini = 0.0\nsamples = 1\nvalue = [0, 1]"] ;
21 -> 22 ;
23 [label="Age <= 5.5\ngini = 0.142\nsamples = 26\nvalue = [24, 2]"] ;
21 -> 23 ;
24 [label="gini = 0.444\nsamples = 3\nvalue = [2, 1]"] ;
23 -> 24 ;
25 [label="gini = 0.083\nsamples = 23\nvalue = [22, 1]"] ;
23 -> 25 ;
26 [label="Age <= 6.5\ngini = 0.306\nsamples = 577\nvalue = [468, 109]"] ;
0 -> 26 [labeldistance=2.5, labelangle=-45, headlabel="False"] ;
27 [label="SibSp <= 2.5\ngini = 0.444\nsamples = 24\nvalue = [8, 16]"] ;
26 -> 27 ;
28 [label="gini = 0.0\nsamples = 15\nvalue = [0, 15]"] ;
27 -> 28 ;
29 [label="Age <= 2.5\ngini = 0.198\nsamples = 9\nvalue = [8, 1]"] ;
27 -> 29 ;
30 [label="gini = 0.0\nsamples = 5\nvalue = [5, 0]"] ;
29 -> 30 ;
31 [label="Fare <= 31.331\ngini = 0.375\nsamples = 4\nvalue = [3, 1]"] ;
29 -> 31 ;
32 [label="gini = 0.0\nsamples = 3\nvalue = [3, 0]"] ;
31 -> 32 ;
33 [label="gini = 0.0\nsamples = 1\nvalue = [0, 1]"] ;
31 -> 33 ;
34 [label="Pclass <= 1.5\ngini = 0.28\nsamples = 553\nvalue = [460, 93]"] ;
26 -> 34 ;
35 [label="Fare <= 26.144\ngini = 0.46\nsamples = 120\nvalue = [77, 43]"] ;
34 -> 35 ;
36 [label="gini = 0.0\nsamples = 10\nvalue = [10, 0]"] ;
35 -> 36 ;
37 [label="Age <= 53.0\ngini = 0.476\nsamples = 110\nvalue = [67, 43]"] ;
35 -> 37 ;
38 [label="gini = 0.495\nsamples = 89\nvalue = [49, 40]"] ;
37 -> 38 ;
39 [label="gini = 0.245\nsamples = 21\nvalue = [18, 3]"] ;
37 -> 39 ;
40 [label="Fare <= 51.698\ngini = 0.204\nsamples = 433\nvalue = [383, 50]"] ;
34 -> 40 ;
41 [label="Age <= 13.0\ngini = 0.193\nsamples = 417\nvalue = [372, 45]"] ;
40 -> 41 ;
42 [label="gini = 0.444\nsamples = 12\nvalue = [8, 4]"] ;
41 -> 42 ;
43 [label="gini = 0.182\nsamples = 405\nvalue = [364, 41]"] ;
41 -> 43 ;
44 [label="Fare <= 63.023\ngini = 0.43\nsamples = 16\nvalue = [11, 5]"] ;
40 -> 44 ;
45 [label="gini = 0.408\nsamples = 7\nvalue = [2, 5]"] ;
44 -> 45 ;
46 [label="gini = 0.0\nsamples = 9\nvalue = [9, 0]"] ;
44 -> 46 ;
}